UNKNOWN 0.0017424665 0.06601337 0.026589736 0.028381124 0.13218048 -0.043170724 0.08396128 0.041774437 -0.09567933 0.00015233325 0.11299293 -0.057064287 -0.042907897 0.07969742 0.08205711 -0.14112715 0.01241736 -0.051150475 -0.07395427 0.0045910263
PADDING 0.17322071 -0.09422091 0.056723997 -0.18251367 -0.1029343 0.15149035 -0.108006574 -0.1788894 0.14707497 -0.15793955 -0.15653546 0.10115548 0.09651279 -0.033298094 -0.09732073 0.11707034 -0.17817928 0.14255889 0.087892525 0.14689107
LEFT_WORDS_PADDING -0.1842579 0.093981124 0.058581285 0.11229609 0.061771132 -0.04094958 -0.04181015 0.101669654 -0.0079118125 0.031692293 -0.0069500213 -0.15301304 0.0429918 -0.042399254 0.092736214 0.07932663 -0.055682715 0.0042454526 -0.13031892 0.023351975
RIGHT_WORDS_PADDING 0.033186186 -0.036782086 -0.012846649 -0.04921764 0.026240256 -0.02494911 0.030293059 0.018353764 -0.04096303 0.0016972795 -0.0040762797 0.031075548 -0.0239025 -0.007933103 0.03835589 -0.049136367 0.0067003593 -0.028003061 -0.037306882 0.018663768
U 0.018537395 -0.101862445 0.003805052 -0.018092217 -0.0022603432 -0.049497142 0.010392797 -0.0022834619 0.11692246 -0.07040663 0.048389856 0.1479382 -0.047340583 0.026716879 -0.0066089327 0.03934568 0.070622794 0.046086855 0.10239754 0.014548059
N -0.11742725 0.119509324 0.04985108 0.0423649 -0.09109546 -0.23892136 0.117912754 0.07621393 0.017810144 0.077235 -0.043695882 -0.007975542 0.1774803 -0.34699437 -0.07630843 0.06975268 -0.042777877 -0.12040773 -0.039387543 0.06121151
K 0.09811939 -0.29235935 0.16549212 -0.1975204 -0.019653916 0.13202097 -0.111814864 -0.12511744 0.044680692 -0.16778602 -0.044486556 0.06941548 0.078596234 -0.03128389 -0.22392197 0.10269229 -0.051462103 0.3160931 -0.06388049 0.17283873
O -0.056728423 0.06525373 0.38975865 0.028706802 0.10250826 -0.0805158 0.016574068 0.088540904 -0.024730792 0.038910437 0.068977036 -0.115200736 0.07989631 -0.06303108 -0.14974853 -0.023762252 -0.10258587 0.095708035 -0.06461251 0.17650612
W -0.03537024 -0.14014381 -0.05293231 -0.08289484 -0.10534473 -0.05319721 0.0019877448 -0.044290517 0.10931805 0.013182568 -0.02071872 0.1926135 -0.0798285 -0.10133648 0.04790941 0.0008284984 0.04557978 -0.025873303 0.06531955 -0.09900867
P 0.1868348 -0.10600111 -0.17450985 -0.20090947 -0.20944662 0.11445699 -0.09674152 -0.19640079 0.10609057 0.013457207 -0.11357562 0.20304829 0.066189766 0.10738692 -0.025419356 0.06391089 0.11250486 -0.15477327 0.21281146 -0.13635899
A -0.011456639 -0.14291728 -0.22026691 0.05449636 -0.15957385 0.08232935 -0.08381404 0.0068432307 0.091552146 0.07711166 -0.011570732 0.06540915 -0.0667356 0.15309566 0.09614449 0.13729747 0.07075625 -0.059753835 0.101030104 -0.20711713
D 0.05683763 0.09479269 -0.11792207 -0.17221375 -0.016491594 0.18478027 -0.02232928 -0.09918006 0.06572215 -0.018568754 -0.14855559 0.022570426 0.013352893 0.12884544 0.097280316 0.10863239 0.11633509 -0.08084563 0.055325076 -0.1177585
I 0.019126326 -0.039585903 -0.23992592 0.0407624 0.050689787 0.1305487 0.08010092 0.029068418 -0.1280101 0.17936184 -0.022738282 0.06150628 -0.10464687 -0.070641704 0.045772046 0.042892627 0.050891127 -0.16651264 0.033325195 -0.15888174
G 0.13669385 0.031208152 -0.11760972 -0.124906085 -0.18864183 -0.12126455 0.14632992 0.014611304 0.116364695 0.14053215 0.06299249 0.20180294 -0.16160676 -0.044102866 0.08516749 -0.1609739 0.16444199 -0.07416445 0.13357748 -0.30330545
