UNKNOWN 0.011639606 0.012142587 0.022614945 -0.030490685 0.03697591 -0.03376746 0.023531642 0.031933513 -0.036190152 0.01892383 0.009693921 0.012533668 0.045337293 0.047720525 0.017929766 0.01226474 0.042703975 0.03622072 -0.003281474 0.0073854327
PADDING -0.0084342845 -0.03286376 0.024583567 -0.03687166 0.018716637 0.0060941577 0.009064436 -0.01674787 -0.03434988 0.031880464 -0.025698377 0.038531814 0.02117468 0.0013756268 0.047082845 -0.037025463 0.039197873 -0.015694775 -0.041499533 -0.03349637
LEFT_WORDS_PADDING -0.023854924 0.012611058 0.026176427 0.047069516 -0.033923782 0.02860291 0.013454769 -0.04320197 0.01823673 -0.019453192 0.00551828 0.004117895 0.03733201 0.04533836 -0.027440775 -0.042954803 -0.016480602 -0.02002945 -0.021494854 0.02840202
RIGHT_WORDS_PADDING -0.03755057 -0.0038338788 0.04735699 0.02823532 -0.03112824 -0.002845239 -0.0075958744 0.0451723 0.010781158 -0.019850899 -0.01934116 -0.005549025 -0.002656579 -0.02245592 0.02076267 0.022123028 -0.0062647946 0.030649912 -0.010981321 -0.04382355
U -0.03820952 0.030265894 0.023796927 -0.001233317 0.025272492 0.027720217 -0.0067538843 -0.004152667 0.041082207 0.007022105 0.0023434646 -0.016409587 -0.015412249 -0.0040156133 0.04488394 0.011327386 -0.0027285703 0.046295952 0.047591377 0.0432037
N 0.048032377 0.0158947 0.029009748 -0.008927036 -0.031159079 -0.018161021 0.023458336 0.015620772 0.025879506 -0.03533219 0.037209217 0.03923777 0.007516265 0.0011427291 0.034455422 0.0027363412 -0.036825657 -0.039216362 -0.0034457073 -0.009015821
K 0.010549583 0.025772285 0.039805565 0.001021456 -0.0045521036 0.0018036366 -0.019417226 -0.04125464 0.016799305 0.00487417 -0.045010805 0.025928888 0.015372936 0.0067437775 0.021387946 0.012410652 -0.04132687 -0.033554006 -0.03927263 0.035569016
O 0.032219063 0.022468876 0.03212973 0.0366552 -0.0443928 -0.01848749 -0.0045927987 -0.035757482 0.019660924 0.002689682 -0.037411533 0.049224827 0.0045771375 -0.019713402 0.049612258 -0.03792535 -0.0073384866 0.04055388 -0.010356188 0.028092597
W -0.0027552731 0.004624702 0.01766095 0.036386017 -0.047605157 -0.027733255 -0.00066624954 0.0023469813 0.03554556 -0.036188744 -0.027056908 0.023022447 0.04560436 -0.013362147 -0.022858692 -0.0196095 0.00888158 -0.002995681 0.01661947 3.7252903e-05
P 0.042381715 0.046610583 -0.022543157 -0.021175241 -0.034088887 -0.04404787 0.016149592 -0.013938487 0.04949219 -0.041157115 0.032150973 -0.02037555 0.019749966 0.013022911 -0.040259004 -0.012218725 0.009342562 -0.041751374 0.008223224 -0.017348897
A -0.0043004155 0.031212319 -0.04863136 -0.047558155 0.020250153 -0.0028456673 0.014434043 0.03284731 -0.00613109 -0.047234118 -0.04694748 0.02448124 0.011735272 -0.017191183 -0.03489833 -0.03108189 0.002695717 0.017671797 -0.031687737 -0.011435486
D 0.0080040805 0.045138393 -0.0035453215 -0.001450263 0.03631177 -0.026135683 0.030251253 -0.03953334 0.01383784 -0.0452415 -0.035618626 -0.038806986 0.029441785 0.015327189 0.030641507 0.019446421 -0.00414747 0.037334833 0.0019366257 -0.018831944
I 0.046126198 -0.018491399 -0.016274132 0.00100559 -0.025537683 0.030846026 0.046863828 0.042573962 -0.04847982 0.044547472 0.04680909 -0.041330647 0.049860004 -7.805973e-05 0.0101719275 0.011178743 0.01257192 -0.019649161 0.0032029748 -0.047797382
G 0.004381608 -0.0027548298 0.049505506 0.042109136 -0.005866967 -0.0049481876 -0.026049221 0.0037456043 0.0032408126 0.030027557 -0.027688479 -0.007639993 -0.026748348 -0.018964041 0.027484085 0.041063104 -0.0067101717 0.037537422 -0.0441772 0.0036957972
< 0.026679944 0.035935733 0.018837657 -0.014654003 0.010832489 0.01033479 0.031685796 0.023112599 -0.038197506 0.0110553615 0.016976025 -0.015930545 0.030134428 -0.015583374 0.037193168 0.015107941 0.022723246 0.03785858 -0.038074136 0.004839301
/ 0.03434808 -0.0301579 -0.016872335 0.034073357 0.0058240294 -0.027135372 0.016706493 -0.0077470317 0.003346216 -0.0038154237 -0.03303765 0.019241918 0.048596058 -0.045950092 -0.025508165 0.020941045 -0.035923135 0.024004195 0.014792446 0.009283043
s 0.02329189 -0.027069962 -0.02864846 -0.027636481 -0.048363984 -0.046462465 -0.0075947754 0.016432729 -0.017102562 -0.0071082115 -0.034501374 0.04916087 0.002522122 -0.022429574 -0.034630716 -0.016660023 0.04339696 0.009629715 0.03155336 -0.027600706
> 0.029202674 0.003156282 0.044030953 0.0071697123 0.026859608 -0.024986995 -0.027686715 -0.033853292 -0.010606229 -0.014512885 0.010872234 0.0076997764 0.033072855 0.011389565 -0.023275936 0.0042319186 -0.027711654 0.030752633 0.037136685 0.004602898
, -0.023424208 0.048403133 9.135157e-05 0.047859017 0.045190822 -0.02147435 -0.00839318 0.02956419 0.017372455 -0.045154847 0.03738134 -0.026180912 0.046089243 -0.03234744 0.038441215 0.018076014 0.034289252 0.013337936 0.018578853 0.010951363
