UNKNOWN -0.02353842 0.048940748 -0.13413793 0.064050734 -0.22778535 0.0670205 -0.0067629786 0.027140956 0.046091836 0.07437343 0.003403118 -0.02546949 0.1006206 -0.1228916 -0.065168366 -0.027147902 -0.13361523 -0.02285933 -0.012281501 0.11429716
PADDING 0.09569579 0.118750595 0.16593446 -0.009145804 0.0952625 0.0334972 0.07514389 -0.13366224 0.053306658 -0.07488762 -0.13662797 0.091029935 -0.091572694 0.09556779 0.0010969195 0.122002356 0.09239776 0.12458754 0.112736985 0.06457096
LEFT_WORDS_PADDING 0.05377531 -0.08956986 -0.050694164 0.0195805 0.04208381 -0.0951737 -0.057414934 -0.063931994 -0.015983846 0.07186519 0.046015996 -0.09247779 -0.049345564 0.056832183 0.090744525 -0.03790396 0.017288899 -0.048839096 -0.12549795 0.12558542
RIGHT_WORDS_PADDING 0.007884704 -0.019185496 0.049617935 0.0078313835 -0.025056494 0.02490196 -0.02500062 -0.0025911555 -0.027398992 -0.03910961 0.00015393645 -0.024872338 0.047455493 0.024361696 -0.016688168 -0.00012796 -0.029400898 0.04436064 0.03508382 -0.03209852
U -0.04702339 -0.07016929 0.10171566 0.033946212 0.060105633 -0.008920352 0.010533506 -0.098196164 -0.05527196 -0.06189072 -0.045402642 0.05542581 -0.106012136 -0.0777061 -0.10348909 0.10291016 0.033714417 0.032271624 0.100462794 -0.03251316
N -0.012323114 -0.010510733 -0.025422562 0.031212693 -0.08872032 -0.073284104 0.101664074 0.11942612 -0.18999511 -0.0018357321 0.011260749 -0.06086558 0.031168507 -0.0056113703 0.065191396 -0.019009458 -0.041451912 -0.025304511 -0.015677422 -0.005057506
K 0.02824357 0.040564544 0.0669764 0.06403325 0.071396865 0.076164186 -0.10796113 0.06156898 0.028083412 -0.100284785 -0.03539583 0.031856358 0.004155946 -0.024786394 -0.07715024 0.03517915 0.060271844 0.048039123 0.0192244 -0.0855188
O -0.039497044 -0.087121665 -0.08014591 0.04592132 -0.0072538573 -0.021040123 0.029759288 0.054946374 -0.07001937 0.030649912 0.06932987 -0.055142544 0.081606224 -0.017739985 0.124894716 -0.023159854 -0.020853851 -0.018361058 -0.023415606 0.030519394
W 0.04332092 -0.0036730734 -0.09884422 -0.06296836 -0.053711966 -0.029768739 -0.07182861 0.012166342 -0.07377079 0.060440462 0.07763463 -0.011849517 -0.06298947 0.04625607 0.07250514 -0.100377224 -0.038818505 0.009745765 -0.033684503 0.06647162
P 0.06647787 -0.014557459 0.23954085 -0.05260875 0.18139124 -0.06423474 0.014327109 -0.031333867 -0.09345937 -0.14273795 -0.16809453 -0.023964252 0.117133126 -0.07536584 0.11251513 -0.023701217 0.06646831 0.03320194 0.199401 -0.020577474
A -0.15570655 -0.014063529 0.06529818 0.06147011 0.06354338 0.052576408 0.125382 0.13770151 -0.084352985 -0.092230804 0.07377971 0.042966288 0.031650636 0.0062011937 -0.019832423 0.08632817 0.039633375 0.0070543448 0.05685375 -0.14083222
D -0.093521826 0.0744861 -0.012899759 -0.024077544 -0.06240575 -0.035060562 -0.10057143 0.07724048 0.017784523 0.0031225365 0.07860602 0.0038037428 0.048559587 -0.099965766 0.07913831 -0.09353642 0.048196547 -0.115320265 -0.031878654 -0.082750365
I -0.05238545 -0.06791786 -0.04250197 0.008112 0.015830157 0.022991369 -0.07368281 0.04974359 -0.0030028604 -0.04696147 0.0884843 0.08639357 -0.009297355 -0.1430625 0.08284068 -0.08217692 0.07446347 -0.13926293 -0.012530704 -0.053220913
G -0.069720194 0.0011232069 0.09974468 0.07861227 0.09205801 0.061943505 -0.035951708 -0.0017253387 0.03649364 -0.04281561 0.0073123686 0.04152771 0.035039946 -0.038355358 -0.08836452 -0.013580377 0.1937951 0.024809882 0.07486164 -0.11148794
< -0.039835762 0.03473499 0.030956697 0.045811307 -0.037875675 0.0034414418 -0.00953269 -0.034869753 -0.014749277 -0.017267477 0.03002708 -0.0023060665 0.03081331 0.028184604 -0.04399253 -0.011056878 0.039245773 -0.02789445 0.01869974 -0.0048467293
/ 0.03443593 -0.0124432575 0.08130865 -0.020052029 0.021287564 0.01718949 0.037749916 -0.0165874 0.016915113 -0.02861898 -0.076853536 0.021876918 -0.041182388 0.031444624 0.03266008 0.06530937 0.03368756 -0.038782563 0.0057725585 0.020866089
s 0.033218574 -0.0482382 -0.14362855 -0.056752667 -0.06709783 0.01928673 -0.0980342 0.26916245 -0.23719396 0.07066725 0.05584005 -0.1013498 0.0012938244 0.14392208 0.021949552 0.0039218366 0.06337088 0.060037017 -0.17158191 -0.117387354
> -0.017197192 0.026027951 -0.0077152625 0.020455424 0.01761401 -0.024052799 0.025803868 -0.012102783 -0.0010653622 -0.021437133 -0.011711024 -0.04214207 -0.036146402 0.029290285 -0.0067117102 -0.01652769 0.005250979 -0.02743733 -0.043381155 0.040961575
, 0.03380138 0.048545435 -0.025391195 -0.02821004 -0.07187857 0.07188592 -0.04656277 0.03146585 -0.02508603 -0.009515857 0.055441607 0.010025324 -0.02628947 0.06868127 0.007270997 0.0019287058 0.0010078464 0.04066521 -0.059158586 0.04325949
